[[-0.0683509  -0.3825874  -2.8221605  ...  0.0075364  -0.11496719
  -0.13956016]
 [-0.12135616  0.07693496  0.04204382 ... -0.05222861 -0.06448253
  -0.00339986]
 [-0.0754473  -0.44308206  0.39616284 ...  0.21887287  0.03895946
  -0.13574123]
 ...
 [-0.08027951 -0.6599902   0.25596726 ... -0.67171013 -0.05999833
  -0.05786477]
 [-0.0803595   1.919419   -0.15643223 ...  1.8199029  -0.20264678
  -0.11016232]
 [-0.04264775  0.5250758  -2.9330094  ...  3.3856905  -0.08174381
   0.05563797]]
[-4.31317091e-02 -1.88118804e+00  3.91226225e-02 -9.43043903e-02
 -4.43222570e+00 -2.82244012e-02 -2.43462920e-02 -5.31645715e-02
 -1.95990518e-01 -8.67321491e-02 -6.51419163e-02 -2.30213162e-02
  2.74327844e-01 -4.96616542e-01 -8.95384192e-01 -7.00227857e-01
 -6.05047047e-01  1.09484173e-01 -1.12095907e-01  1.01948714e+00
 -4.83357728e-01 -3.90743327e+00 -2.64129686e+00 -2.90198363e-02
 -3.48224699e-01 -3.68545651e-02 -2.83600211e+00 -1.93011391e+00
 -2.82204270e-01 -5.60724810e-02 -7.03864619e-02 -6.90156519e-02
 -1.32863569e+00 -4.02659798e+00 -3.36262621e-02  3.40267301e-01
  2.20616788e-01  8.31256956e-02 -3.74468565e+00 -1.16991326e-01
 -9.89654541e-01 -6.31731391e-01 -1.90191746e-01 -2.01402140e+00
 -1.60743281e-01 -1.82085067e-01 -6.32748902e-01 -2.18062377e+00
 -3.98455596e+00  1.11928201e+00 -4.70481634e-01 -1.80756450e+00
  1.12612016e-01 -6.74381733e-01 -2.76191775e-02 -6.25043094e-01
 -3.90870118e-04 -3.29511213e+00 -5.44030443e-02 -1.07584476e-01
 -6.30861878e-01 -3.48033905e-01 -2.56113505e+00 -5.09730577e+00
 -1.03967500e+00  1.69420511e-01 -1.76697075e+00 -5.68374348e+00
 -4.78453562e-02  1.02859057e-01 -6.48704886e-01 -9.77064297e-02
 -5.08291051e-02 -8.09593126e-02  8.37084353e-01 -1.12533271e+00
 -2.47429180e+00 -2.07665873e+00 -4.75386493e-02 -3.43385041e-02
 -2.91659141e+00 -8.67596865e-01 -2.75430560e+00 -1.38365567e+00
 -1.91921723e+00 -1.21693015e+00 -1.93351433e-01 -1.85597494e-01
 -2.08211827e+00  2.59833932e-01  9.00190994e-02 -6.12372234e-02
  1.03060734e+00 -2.31206208e-01  2.01675788e-01 -1.96591601e-01
 -9.33295786e-01  2.37659231e-01 -6.52191341e-02 -9.10019130e-02]
[[-0.05827051  0.11676198  0.14170645 ... -0.11191849 -0.11867163
  -0.02017469]
 [-1.9724103   0.58395743 -2.0029476  ... -0.49377427  0.9924478
  -1.2876885 ]
 [ 0.7199078  -1.739142   -0.12935062 ... -0.47001755 -0.11473415
   0.45727512]
 ...
 [-0.6687643   2.657933    0.89340633 ...  0.58217925  1.0095223
  -1.6209774 ]
 [ 0.02544884 -0.03444844 -0.25671104 ...  0.26527646  0.19906326
  -0.1041348 ]
 [ 0.02297213  0.07319747 -0.01695465 ... -0.1531822   0.0504158
  -0.11544399]]
[-0.1448328   0.35097888 -5.264924   -2.541678    0.34773925 -1.0453883
  0.75336915  1.3483818  -1.6492293  -1.1404204   1.3228207  -0.2870363
 -1.6674733   0.3783985  -1.887634   -1.6747932  -5.424789   -3.07844
 -2.8010316   2.5514817  -2.0159943  -0.95264655  0.7468087  -2.8463063
 -1.1695099   0.5437005  -0.3041059  -0.39581618 -0.97502387 -2.5402238
 -2.767332   -3.427973   -0.11315229  1.1867119  -0.995396   -2.6488206
 -0.34532014 -1.1273774  -1.9368637   0.9614427  -4.6168766   0.19786476
 -1.3170518  -1.6832759  -1.4123921  -6.9317     -0.9832328  -2.4099922
 -6.4984746  -0.1806793 ]
[[ 2.27071762e-01 -5.96390605e-01 -2.49143923e-03 -4.37389374e-01
   3.13895419e-02 -1.07755208e+00 -3.13712686e-01 -5.98485887e-01
  -8.44131231e-01 -1.11940002e+00]
 [-1.64558840e+00 -3.49227823e-02 -6.00208998e-01 -1.14543006e-01
  -8.76959488e-02  2.51064748e-01 -1.95714578e-01 -1.91912115e-01
  -3.97397816e-01 -1.48212624e+00]
 [ 7.60533154e-01  8.40862215e-01 -1.55060470e-01  4.28461492e-01
  -2.06879854e-01  2.15394527e-01  5.49078822e-01 -9.37684849e-02
   2.08297670e-01  3.20742905e-01]
 [-7.53104985e-01  9.52282310e-01  7.20942765e-02  6.36453927e-01
  -3.93174142e-01  1.91684023e-01 -2.07980499e-01  9.08979475e-02
   5.84453493e-02  3.79707664e-01]
 [ 2.15104923e-01 -3.46843630e-01 -5.68018183e-02 -1.81325212e-01
  -3.95777810e-04 -2.97921062e-01 -4.17662561e-01 -2.37023935e-01
  -4.49373037e-01 -2.23894525e+00]
 [-7.72894681e-01  4.48638499e-01  1.02192856e-01  2.07857147e-01
  -2.69430876e-01  2.64325961e-02  2.02540219e-01  1.00187279e-01
  -3.82649712e-02  2.39424899e-01]
 [ 1.24487728e-01 -2.14651987e-01  8.72879177e-02 -4.25255299e-02
   9.36201066e-02 -1.71456218e+00 -8.53346765e-01 -5.48079073e-01
  -6.26889884e-01 -4.40306693e-01]
 [ 1.35729775e-01  1.47661567e-01 -5.21889091e-01 -5.46390891e-01
   2.16485783e-02 -2.66308755e-01 -4.68305290e-01 -1.08951163e+00
  -2.28614569e-01 -4.55605328e-01]
 [-9.61440027e-01  5.85011899e-01  1.90748274e-01  1.03868651e+00
  -4.34515446e-01  3.53796363e-01  5.17679274e-01  8.60288501e-01
   4.81864691e-01  7.99014866e-02]
 [-6.15181029e-01 -6.72084689e-02  2.14367330e-01 -3.98670062e-02
  -1.22577861e-01 -2.44430341e-02 -2.08873332e-01 -2.03036755e-01
   5.88162430e-02  1.17739111e-01]
 [ 9.40450802e-02 -4.67672259e-01 -4.54270482e-01 -3.73647720e-01
   1.01260208e-01 -1.00605702e+00 -4.93275344e-01 -6.40160799e-01
  -2.76978910e-01 -2.57880807e-01]
 [-1.38154125e+00 -3.19129288e-01 -7.15513766e-01  3.68500017e-02
  -8.92407373e-02  5.23728877e-02 -6.07470572e-01 -3.05451483e-01
  -7.67468810e-02  4.64276411e-02]
 [ 7.42982149e-01  7.70193636e-01  1.41073227e-01  5.37630320e-01
  -1.79892197e-01  2.75189191e-01  7.70118654e-01  1.44138038e-01
   1.39246508e-02  2.58799512e-02]
 [-2.13445798e-02  1.35555521e-01  3.78225595e-02  1.15648888e-01
   1.53374642e-01 -2.19509646e-01 -2.90878445e-01 -4.86849323e-02
   4.41983193e-02 -6.04738593e-01]
 [-1.24921858e+00  5.95044732e-01 -2.78355986e-01  1.17219067e+00
  -4.50119466e-01  2.44214430e-01  6.05802000e-01  6.33466065e-01
   6.23076893e-02 -2.51700915e-03]
 [-4.41581905e-01  7.12620854e-01  2.08286062e-01  1.15977359e+00
  -3.72345984e-01 -1.07814290e-01  1.50633299e+00  4.15580362e-01
   1.95635393e-01  7.04753339e-01]
 [ 6.76097691e-01  6.36005461e-01  5.31156480e-01  6.82199597e-01
  -1.54575139e-01 -3.18675339e-02  1.25136411e+00  1.50144994e+00
   9.05640483e-01  4.91429299e-01]
 [ 2.45778710e-01  6.35545909e-01  4.40492421e-01  7.42904007e-01
  -3.91107023e-01 -6.41123354e-02  6.30758166e-01  7.63356805e-01
   4.23837185e-01  5.52551411e-02]
 [ 4.87153858e-01  5.00460088e-01  2.87937135e-01  3.80720675e-01
  -2.66499594e-02  1.69430986e-01  2.57776767e-01  6.94311559e-01
   1.84717342e-01  1.83448523e-01]
 [-1.00659025e+00  1.59046277e-02 -9.25681368e-02 -1.80605412e-01
   2.86514670e-01 -4.41052109e-01 -1.39650643e-01 -5.74986115e-02
  -4.18681562e-01 -1.87668407e+00]
 [-2.37858236e-01  3.47726732e-01 -3.99158269e-01  9.92972493e-01
  -2.49140739e-01 -2.16939881e-01  8.20680261e-01  6.04681432e-01
   2.93331295e-01 -1.55163065e-01]
 [-8.69277835e-01  2.17630137e-02 -2.50708729e-01 -5.15185356e-01
  -2.76704896e-02  8.55507255e-02  6.25078827e-02 -1.09672705e-02
  -4.32369322e-01  6.11627102e-02]
 [ 1.80299193e-01  8.92811194e-02  7.30650127e-01 -1.88135728e-01
   2.52993584e-01 -1.71399271e+00 -1.52197540e-01 -3.99519689e-02
   5.59749722e-01 -1.88192770e-01]
 [ 4.31842029e-01  8.71026278e-01  4.99704154e-03  1.04473507e+00
  -9.01652217e-01  2.67707974e-01  3.98619354e-01  9.08148050e-01
   8.82927477e-01  4.29313540e-01]
 [-8.55476141e-01  3.96264464e-01 -3.69567335e-01  8.12932625e-02
  -2.43857518e-01  1.50505053e-02  3.80217969e-01  1.81319445e-01
  -1.31928712e-01  2.22833008e-01]
 [ 5.45132160e-03  5.49506605e-01 -1.49254771e-02 -1.76313579e-01
   3.70567292e-02 -2.41385505e-01 -3.78872544e-01 -7.45614767e-01
   2.35611349e-02  3.28207493e-01]
 [-1.17406774e+00 -9.89663228e-02 -5.04326701e-01 -6.64499283e-01
  -2.04553634e-01 -1.04393307e-02 -1.64083004e-01  1.81814041e-02
  -5.68141416e-02  7.73289278e-02]
 [ 5.07110953e-02 -1.66623190e-01 -2.88458526e-01  2.54717618e-01
   6.74411878e-02 -7.86427706e-02  2.26853535e-01 -3.04608308e-02
  -5.76663353e-02  2.52207577e-01]
 [-2.20912552e+00 -4.32687849e-01 -7.50906825e-01 -1.34670690e-01
  -1.99857861e-01  5.51529750e-02 -5.42332470e-01 -6.86866790e-02
  -2.36297444e-01  9.91188660e-02]
 [-8.86313096e-02  5.75631857e-01 -1.79328859e-01  3.07204127e-01
  -5.26148081e-01  1.49753809e-01  1.35441422e-01 -9.34735015e-02
   2.77874380e-01 -2.94428915e-02]
 [ 1.42854406e-02 -3.50439042e-01  8.89294595e-03  8.76075178e-02
  -4.36125785e-01  1.60103932e-01  3.51993531e-01  3.00424367e-01
   4.48944896e-01 -2.73837689e-02]
 [ 7.16898203e-01  7.11693466e-01  3.34190696e-01  2.92793334e-01
   4.35085520e-02  3.70617434e-02 -6.07193708e-02  5.92387989e-02
   6.44671619e-01  1.03192294e+00]
 [-3.84844780e-01  1.27430066e-01 -2.63993084e-01  1.53557271e-01
   1.87399954e-01  6.47871867e-02 -7.15198368e-02 -2.57468447e-02
  -1.02292180e-01  1.83168039e-01]
 [ 8.60953927e-02 -4.72536720e-02 -7.11056232e-01 -4.96876180e-01
   4.10357378e-02 -8.13798189e-01 -4.83236074e-01 -8.35851610e-01
  -2.71597087e-01 -1.61413467e+00]
 [-2.27510500e+00 -8.45290944e-02 -3.40994328e-01  1.50808364e-01
  -2.45711520e-01  6.39565289e-02 -2.70768017e-01 -5.10272741e-01
  -5.05493917e-02  1.78054303e-01]
 [ 2.04057544e-01  1.87489986e-01  2.09299207e-01 -2.56933481e-01
  -2.22528592e-01  2.76651591e-01 -5.67321368e-02  3.08668733e-01
   2.47912139e-01  1.07768849e-01]
 [ 4.72298674e-02 -7.05771446e-02  3.79631370e-02 -1.74362317e-01
   1.96352601e-01 -5.36066443e-02 -1.14917845e-01 -7.13635003e-03
   1.49375647e-01 -3.99206057e-02]
 [-1.75842404e+00 -2.75917590e-01 -4.88426179e-01  2.86942488e-03
  -1.30357057e-01  3.00097559e-02 -4.65290129e-01 -1.81262329e-01
   1.43599764e-01  5.74335828e-02]
 [ 1.28424704e-01 -3.91465873e-01  3.81900460e-01 -1.55478105e-01
   7.83443078e-02 -5.34052730e-01  3.08895838e-02 -3.55234683e-01
   1.97295874e-01 -1.17134541e-01]
 [ 1.55555800e-01  1.33310050e-01  1.48175910e-01 -4.98323552e-02
   1.50237784e-01 -1.37996578e+00  2.12969750e-01  4.08317327e-01
  -3.43546793e-02 -8.02344918e-01]
 [ 6.13430679e-01  2.41521105e-01  8.74194086e-01  2.44675636e-01
  -2.93340199e-02  3.73046130e-01 -4.39388275e-01  3.30661207e-01
   8.05666685e-01  2.20096573e-01]
 [ 1.33416299e-02  2.19356254e-01 -5.75286970e-02  2.51051515e-01
   1.17358841e-01 -3.97397310e-01  1.80766895e-01  3.12485784e-01
  -2.40770325e-01 -5.92864573e-01]
 [-1.83457732e+00 -1.98665872e-01 -3.31804603e-01 -3.04729015e-01
  -2.50567067e-02  3.39101739e-02 -1.23851605e-01  5.20375632e-02
  -4.21429783e-01  1.34587929e-01]
 [-1.27694976e+00  5.46658099e-01  8.88554230e-02  5.96100569e-01
  -3.51194412e-01  2.86010265e-01  4.05272275e-01  4.16604424e-04
   7.28675187e-01  2.02145055e-01]
 [ 3.41252267e-01  4.06252354e-01  2.14538381e-01  9.84198868e-01
   2.05762550e-01  2.58223325e-01  8.11493158e-01  1.92664906e-01
   6.78196967e-01  2.88813915e-02]
 [ 2.90988028e-01  7.15763450e-01  1.06443457e-01  8.47755909e-01
   1.09644718e-01 -6.65719286e-02  8.38173628e-01  7.82806695e-01
   1.12374580e+00  5.06507456e-01]
 [-1.08003604e+00 -1.35464504e-01 -1.44292727e-01 -1.34850204e-01
  -2.45836198e-01  8.90509859e-02  2.23892510e-01 -2.57202238e-01
  -1.59739494e-01  1.36605486e-01]
 [-1.62363112e-01  4.84365417e-04  2.72822410e-01  1.71926230e-01
   1.12613797e-01  2.62512028e-01 -5.26012145e-02  2.97922075e-01
   1.02938913e-01  8.99876282e-02]
 [ 7.28315949e-01  3.88737828e-01  2.70536810e-01 -2.22235605e-01
  -1.11401696e-02  3.07430059e-01  4.23062801e-01  6.35005653e-01
   7.13915154e-02  1.95429638e-01]
 [ 1.67100459e-01 -6.69985950e-01 -6.41425073e-01 -2.78507113e-01
   3.43076810e-02 -7.01275527e-01 -7.36054242e-01 -1.74997121e-01
  -1.24348775e-01 -1.96825576e+00]]
[ 0.7910768 -3.134795  -2.817812  -3.8580718  2.0724163  1.0841404
 -3.1981459 -2.6128168 -3.3402328  0.5458392]
[[ 0.06950904]
 [ 0.00063566]
 [ 0.01248051]
 [-0.03036302]
 [ 0.11466705]
 [-0.07626481]
 [ 0.0308956 ]
 [-0.0186125 ]
 [ 0.01408383]
 [-0.05302642]]
[-0.6976243]
